{"learner":{"attributes":{"best_iteration":"13","best_ntree_limit":"14","best_score":"58.465538033042236","scikit_learn":"{\"n_estimators\": 50, \"objective\": \"reg:squarederror\", \"max_depth\": 3, \"max_leaves\": null, \"max_bin\": null, \"grow_policy\": null, \"learning_rate\": 0.26, \"verbosity\": null, \"booster\": null, \"tree_method\": null, \"gamma\": null, \"min_child_weight\": null, \"max_delta_step\": null, \"subsample\": null, \"sampling_method\": null, \"colsample_bytree\": null, \"colsample_bylevel\": null, \"colsample_bynode\": null, \"reg_alpha\": null, \"reg_lambda\": null, \"scale_pos_weight\": null, \"base_score\": null, \"missing\": NaN, \"num_parallel_tree\": null, \"random_state\": 18, \"n_jobs\": 6, \"monotone_constraints\": null, \"interaction_constraints\": null, \"importance_type\": null, \"gpu_id\": null, \"validate_parameters\": null, \"predictor\": null, \"enable_categorical\": false, \"feature_types\": null, \"max_cat_to_onehot\": null, \"max_cat_threshold\": null, \"eval_metric\": \"rmse\", \"early_stopping_rounds\": 10, \"callbacks\": null, \"evals_result_\": {\"validation_0\": {\"rmse\": [123.7324371017134, 104.60404047739004, 92.13082479191722, 84.30458913109187, 79.32626532154467, 75.70569945960499, 73.91952755021192, 72.32352834899848, 71.22892797634425, 70.49507515559088, 70.11580592214644, 69.71485436131354, 69.46324981586862, 69.22554757855382, 68.07205999486231, 67.82397557844328, 67.51605541586274, 67.36854538957256, 67.2398869444652, 66.91861616177587, 66.656173212883, 66.46032504327566, 66.309424115915, 66.22589812352112]}, \"validation_1\": {\"rmse\": [108.88382032611447, 88.42447228564183, 75.84225233896464, 68.40844768522354, 63.59282109992811, 60.99817589674637, 60.175842418854444, 58.75414689455635, 58.786480064671245, 58.71327413165463, 58.71858381600571, 58.67120109458515, 58.75047422420809, 58.465538033042236, 58.77167667154451, 58.7943385509291, 58.916882793535734, 58.997649382075195, 59.03802865648695, 59.00591066418229, 59.23072736311063, 59.43585949315693, 59.59468518020814, 59.4021036839296]}}, \"_estimator_type\": \"regressor\"}"},"feature_names":["hour","dayofmonth","dayofweek","dayofyear","weekofyear","month","quarter","year","pm_lag_1Y","pm_lag_2Y"],"feature_types":["int","int","int","int","int","int","int","int","float","float"],"gradient_booster":{"model":{"gbtree_model_param":{"num_parallel_tree":"1","num_trees":"24","size_leaf_vector":"0"},"tree_info":[0,0,0,0,0,0,0,0,0,0,0,0,0,0,0,0,0,0,0,0,0,0,0,0],"trees":[{"base_weights":[1.2005027E2,1.0243273E2,1.9778795E2,1.6676884E2,8.9176384E1,2.2718338E2,1.798265E2,1.9061829E2,1.488584E2,1.5418457E2,7.419323E1,1.7790523E2,2.5204929E2,1.513276E2,1.9160378E2],"categories":[],"categories_nodes":[],"categories_segments":[],"categories_sizes":[],"default_left":[1,1,1,1,1,1,1,0,0,0,0,0,0,0,0],"id":0,"left_children":[1,3,5,7,9,11,13,-1,-1,-1,-1,-1,-1,-1,-1],"loss_changes":[1.2719693E8,6.457229E7,9.019904E6,5.497728E6,6.115165E7,7.92608E6,3.547904E6,0E0,0E0,0E0,0E0,0E0,0E0,0E0,0E0],"parents":[2147483647,0,0,1,1,2,2,3,3,4,4,5,5,6,6],"right_children":[2,4,6,8,10,12,14,-1,-1,-1,-1,-1,-1,-1,-1],"split_conditions":[4.25E1,7.5E0,3.205E2,3.5E0,2.0135E3,3.025E2,2.0145E3,4.9560753E1,3.8703182E1,4.0087986E1,1.929024E1,4.6255356E1,6.5532814E1,3.9345177E1,4.981698E1],"split_indices":[4,4,3,4,7,3,7,0,0,0,0,0,0,0,0],"split_type":[0,0,0,0,0,0,0,0,0,0,0,0,0,0,0],"sum_hessian":[9.2889E4,7.5729E4,1.716E4,1.2936E4,6.2793E4,6.504E3,1.0656E4,5.544E3,7.392E3,1.176E4,5.1033E4,2.184E3,4.32E3,3.12E3,7.536E3],"tree_param":{"num_deleted":"0","num_feature":"10","num_nodes":"15","size_leaf_vector":"0"}},{"base_weights":[8.884096E1,6.835896E1,1.3099695E2,4.937109E1,9.085984E1,1.1432184E2,1.6198813E2,7.679725E1,3.680056E1,1.6157973E2,8.3093636E1,1.439654E2,1.015097E2,1.9820305E2,1.4587004E2],"categories":[],"categories_nodes":[],"categories_segments":[],"categories_sizes":[],"default_left":[1,1,1,1,1,1,1,0,0,0,0,0,0,0,0],"id":1,"left_children":[1,3,5,7,9,11,13,-1,-1,-1,-1,-1,-1,-1,-1],"loss_changes":[8.019584E7,2.6705952E7,1.5677696E7,1.1687344E7,1.5700448E7,7.486736E6,6.171872E6,0E0,0E0,0E0,0E0,0E0,0E0,0E0,0E0],"parents":[2147483647,0,0,1,1,2,2,3,3,4,4,5,5,6,6],"right_children":[2,4,6,8,10,12,14,-1,-1,-1,-1,-1,-1,-1,-1],"split_conditions":[1.3339221E2,8.699928E1,4.35E1,2.0165E3,2.0125E3,5.5E0,3.175E2,1.9967283E1,9.568145E0,4.2010727E1,2.1604345E1,3.7431E1,2.639252E1,5.153279E1,3.792621E1],"split_indices":[8,9,4,7,7,4,3,0,0,0,0,0,0,0,0],"split_type":[0,0,0,0,0,0,0,0,0,0,0,0,0,0,0],"sum_hessian":[9.2889E4,6.2517E4,3.0372E4,3.3907E4,2.861E4,1.975E4,1.0622E4,1.0655E4,2.3252E4,2.829E3,2.5781E4,5.957E3,1.3793E4,3.268E3,7.354E3],"tree_param":{"num_deleted":"0","num_feature":"10","num_nodes":"15","size_leaf_vector":"0"}},{"base_weights":[6.574496E1,3.983834E1,8.5915504E1,7.951803E1,3.3200565E1,7.436187E1,1.1395798E2,1.07408005E2,5.4176487E1,4.7868702E1,2.2935974E1,1.3105838E2,6.879336E1,1.3150758E2,9.465197E1],"categories":[],"categories_nodes":[],"categories_segments":[],"categories_sizes":[],"default_left":[1,1,1,1,1,1,1,0,0,0,0,0,0,0,0],"id":2,"left_children":[1,3,5,7,9,11,13,-1,-1,-1,-1,-1,-1,-1,-1],"loss_changes":[4.853635E7,1.0707904E7,1.6912384E7,4.11256E6,5.244344E6,1.1669264E7,5.150032E6,0E0,0E0,0E0,0E0,0E0,0E0,0E0,0E0],"parents":[2147483647,0,0,1,1,2,2,3,3,4,4,5,5,6,6],"right_children":[2,4,6,8,10,12,14,-1,-1,-1,-1,-1,-1,-1,-1],"split_conditions":[8.613608E1,2.0135E3,4.25E1,1.945E2,1.655E2,2.0125E3,1.15E1,2.792608E1,1.4085886E1,1.2445862E1,5.963353E0,3.4075176E1,1.7886272E1,3.419197E1,2.460951E1],"split_indices":[8,7,4,3,3,7,0,0,0,0,0,0,0,0,0],"split_type":[0,0,0,0,0,0,0,0,0,0,0,0,0,0,0],"sum_hessian":[9.2889E4,4.0664E4,5.2225E4,5.826E3,3.4838E4,3.6989E4,1.5236E4,2.772E3,3.054E3,1.4341E4,2.0497E4,3.306E3,3.3683E4,7.978E3,7.258E3],"tree_param":{"num_deleted":"0","num_feature":"10","num_nodes":"15","size_leaf_vector":"0"}},{"base_weights":[4.8653114E1,2.9021057E1,6.462281E1,1.7090126E1,4.248514E1,5.6612415E1,9.426401E1,3.8441315E1,1.1271791E1,3.8812088E1,7.907253E1,8.7598625E1,5.034846E1,7.827824E1,1.0846246E2],"categories":[],"categories_nodes":[],"categories_segments":[],"categories_sizes":[],"default_left":[1,1,1,1,1,1,1,0,0,0,0,0,0,0,0],"id":3,"left_children":[1,3,5,7,9,11,13,-1,-1,-1,-1,-1,-1,-1,-1],"loss_changes":[2.9120816E7,6.692944E6,1.2156704E7,2.7442675E6,2.6277E6,7.822904E6,2.464616E6,0E0,0E0,0E0,0E0,0E0,0E0,0E0,0E0],"parents":[2147483647,0,0,1,1,2,2,3,3,4,4,5,5,6,6],"right_children":[2,4,6,8,10,12,14,-1,-1,-1,-1,-1,-1,-1,-1],"split_conditions":[9.0494064E1,7.024315E1,2.1703424E2,2.0165E3,3.015E2,2.0135E3,2.0155E3,9.994741E0,2.9306657E0,1.0091143E1,2.0558857E1,2.2775642E1,1.3090599E1,2.035234E1,2.820024E1],"split_indices":[9,8,8,7,3,7,7,0,0,0,0,0,0,0,0],"split_type":[0,0,0,0,0,0,0,0,0,0,0,0,0,0,0],"sum_hessian":[9.2889E4,4.1668E4,5.1221E4,2.2093E4,1.9575E4,4.0326E4,1.0895E4,4.73E3,1.7363E4,1.7791E4,1.784E3,6.779E3,3.3547E4,5.128E3,5.767E3],"tree_param":{"num_deleted":"0","num_feature":"10","num_nodes":"15","size_leaf_vector":"0"}},{"base_weights":[3.6004684E1,2.83289E1,6.425066E1,2.0104452E1,4.3502373E1,5.230912E1,7.733431E1,4.8709263E1,1.7194805E1,6.593202E1,3.912737E1,8.10219E1,3.3550613E1,1.8401276E2,7.4906685E1],"categories":[],"categories_nodes":[],"categories_segments":[],"categories_sizes":[],"default_left":[1,1,1,1,1,1,1,0,0,0,0,0,0,0,0],"id":4,"left_children":[1,3,5,7,9,11,13,-1,-1,-1,-1,-1,-1,-1,-1],"loss_changes":[2.0137664E7,9.114416E6,3.096984E6,3.94176E6,2.5168E6,5.588046E6,2.438452E6,0E0,0E0,0E0,0E0,0E0,0E0,0E0,0E0],"parents":[2147483647,0,0,1,1,2,2,3,3,4,4,5,5,6,6],"right_children":[2,4,6,8,10,12,14,-1,-1,-1,-1,-1,-1,-1,-1],"split_conditions":[1.7481436E2,1.082525E2,2.0155E3,2.0125E3,3.65E1,2.0135E3,2.5E0,1.2664408E1,4.4706492E0,1.7142324E1,1.0173116E1,2.1065693E1,8.723159E0,4.7843315E1,1.9475737E1],"split_indices":[9,8,7,7,3,7,3,0,0,0,0,0,0,0,0],"split_type":[0,0,0,0,0,0,0,0,0,0,0,0,0,0,0],"sum_hessian":[9.2889E4,7.3042E4,1.9847E4,4.7369E4,2.5673E4,1.0379E4,9.468E3,4.372E3,4.2997E4,4.188E3,2.1485E4,4.1E3,6.279E3,2.09E2,9.259E3],"tree_param":{"num_deleted":"0","num_feature":"10","num_nodes":"15","size_leaf_vector":"0"}},{"base_weights":[2.6644989E1,2.0462587E1,5.0942013E1,2.9191095E1,1.4948431E0,2.850234E1,6.0353268E1,5.9284885E1,2.2484903E1,-1.7273327E0,2.7274158E1,4.6615566E1,-7.9648433E0,8.301022E1,4.9501392E1],"categories":[],"categories_nodes":[],"categories_segments":[],"categories_sizes":[],"default_left":[1,1,1,1,1,1,1,0,0,0,0,0,0,0,0],"id":5,"left_children":[1,3,5,7,9,11,13,-1,-1,-1,-1,-1,-1,-1,-1],"loss_changes":[1.3952332E7,1.225968E7,3.977228E6,1.02333E7,1.9386294E6,3.678909E6,3.259328E6,0E0,0E0,0E0,0E0,0E0,0E0,0E0,0E0],"parents":[2147483647,0,0,1,1,2,2,3,3,4,4,5,5,6,6],"right_children":[2,4,6,8,10,12,14,-1,-1,-1,-1,-1,-1,-1,-1],"split_conditions":[4.15E1,1.935E2,2.0145E3,2.0135E3,2.775E2,2.0135E3,1.25E1,1.5414069E1,5.8460746E0,-4.4910648E-1,7.091281E0,1.2120047E1,-2.0708592E0,2.1582657E1,1.2870361E1],"split_indices":[4,3,7,7,3,7,1,0,0,0,0,0,0,0,0],"split_type":[0,0,0,0,0,0,0,0,0,0,0,0,0,0,0],"sum_hessian":[9.2889E4,7.4049E4,1.884E4,5.0712E4,2.3337E4,5.568E3,1.3272E4,9.24E3,4.1472E4,2.0745E4,2.592E3,3.72E3,1.848E3,4.296E3,8.976E3],"tree_param":{"num_deleted":"0","num_feature":"10","num_nodes":"15","size_leaf_vector":"0"}},{"base_weights":[1.9718073E1,1.4475222E1,3.5863686E1,3.3727167E0,1.9343145E1,8.013475E1,3.430215E1,1.4296628E1,-1.400275E-1,2.7280287E1,1.2964291E1,3.1692375E1,1.0167586E2,3.0809357E1,5.305537E1],"categories":[],"categories_nodes":[],"categories_segments":[],"categories_sizes":[],"default_left":[1,1,1,1,1,1,1,0,0,0,0,0,0,0,0],"id":6,"left_children":[1,3,5,7,9,11,13,-1,-1,-1,-1,-1,-1,-1,-1],"loss_changes":[7.862528E6,3.789759E6,1.571292E6,8.202228E5,2.467752E6,8.05492E5,1.43906E6,0E0,0E0,0E0,0E0,0E0,0E0,0E0,0E0],"parents":[2147483647,0,0,1,1,2,2,3,3,4,4,5,5,6,6],"right_children":[2,4,6,8,10,12,14,-1,-1,-1,-1,-1,-1,-1,-1],"split_conditions":[1.6033624E2,5.77269E1,5.5E0,2.0165E3,1.05E1,2.0155E3,3.523314E2,3.717123E0,-3.6407147E-2,7.0928745E0,3.3707154E0,8.240017E0,2.6435722E1,8.010432E0,1.3794395E1],"split_indices":[9,8,3,7,0,7,9,0,0,0,0,0,0,0,0],"split_type":[0,0,0,0,0,0,0,0,0,0,0,0,0,0,0],"sum_hessian":[9.2889E4,7.0121E4,2.2768E4,2.1374E4,4.8747E4,7.74E2,2.1994E4,5.2E3,1.6174E4,2.1719E4,2.7028E4,2.39E2,5.35E2,1.8543E4,3.451E3],"tree_param":{"num_deleted":"0","num_feature":"10","num_nodes":"15","size_leaf_vector":"0"}},{"base_weights":[1.4592134E1,1.0563752E1,3.0423944E1,3.5813465E1,6.9633327E0,4.275483E1,1.9986954E1,2.9902418E1,6.5330124E1,3.3885788E1,4.1917987E0,5.9045223E1,3.0233984E1,5.4400673E0,5.2705296E1],"categories":[],"categories_nodes":[],"categories_segments":[],"categories_sizes":[],"default_left":[1,1,1,1,1,1,1,0,0,0,0,0,0,0,0],"id":7,"left_children":[1,3,5,7,9,11,13,-1,-1,-1,-1,-1,-1,-1,-1],"loss_changes":[5.923884E6,6.7316035E6,2.423932E6,1.610365E6,4.835754E6,1.759695E6,4.8572595E6,0E0,0E0,0E0,0E0,0E0,0E0,0E0,0E0],"parents":[2147483647,0,0,1,1,2,2,3,3,4,4,5,5,6,6],"right_children":[2,4,6,8,10,12,14,-1,-1,-1,-1,-1,-1,-1,-1],"split_conditions":[4.15E1,5.5E0,1.05E1,1.95E1,2.0125E3,3.205E2,1.95E1,7.7746286E0,1.6985832E1,8.810305E0,1.0898676E0,1.5351757E1,7.8608356E0,1.4144174E0,1.3703377E1],"split_indices":[4,4,0,0,7,3,0,0,0,0,0,0,0,0,0],"split_type":[0,0,0,0,0,0,0,0,0,0,0,0,0,0,0],"sum_hessian":[9.2889E4,7.4049E4,1.884E4,9.24E3,6.4809E4,8.635E3,1.0205E4,7.7E3,1.54E3,6.048E3,5.8761E4,3.751E3,4.884E3,7.065E3,3.14E3],"tree_param":{"num_deleted":"0","num_feature":"10","num_nodes":"15","size_leaf_vector":"0"}},{"base_weights":[1.0798965E1,8.013363E0,2.4273443E1,1.3383473E1,-2.6631742E0,3.8941532E-1,3.4515854E1,3.2856934E1,9.055356E0,-6.2427287E0,1.3871279E1,1.687384E1,-1.8023357E1,5.659288E1,2.4970346E1],"categories":[],"categories_nodes":[],"categories_segments":[],"categories_sizes":[],"default_left":[1,1,1,1,1,1,1,0,0,0,0,0,0,0,0],"id":8,"left_children":[1,3,5,7,9,11,13,-1,-1,-1,-1,-1,-1,-1,-1],"loss_changes":[3.486389E6,4.413506E6,3.892783E6,4.316446E6,1.5248359E6,1.4502382E6,2.345559E6,0E0,0E0,0E0,0E0,0E0,0E0,0E0,0E0],"parents":[2147483647,0,0,1,1,2,2,3,3,4,4,5,5,6,6],"right_children":[2,4,6,8,10,12,14,-1,-1,-1,-1,-1,-1,-1,-1],"split_conditions":[2.995E2,1.945E2,2.0145E3,2.0135E3,4.05E1,3.345E2,3.195E2,8.542803E0,2.3543925E0,-1.6231095E0,3.6065323E0,4.3871984E0,-4.686073E0,1.47141485E1,6.49229E0],"split_indices":[3,3,7,7,4,3,3,0,0,0,0,0,0,0,0],"split_type":[0,0,0,0,0,0,0,0,0,0,0,0,0,0,0],"sum_hessian":[9.2889E4,7.6977E4,1.5912E4,5.1216E4,2.5761E4,4.776E3,1.1136E4,9.312E3,4.1904E4,2.1177E4,4.584E3,2.52E3,2.256E3,3.36E3,7.776E3],"tree_param":{"num_deleted":"0","num_feature":"10","num_nodes":"15","size_leaf_vector":"0"}},{"base_weights":[7.9915986E0,1.3233281E1,2.7487285E0,2.9692833E1,1.0051054E1,-4.299021E0,1.6843596E1,3.3060375E1,-3.9817061E0,5.7781796E0,2.8022411E1,2.6282465E0,-7.035961E0,4.2606052E1,1.334828E1],"categories":[],"categories_nodes":[],"categories_segments":[],"categories_sizes":[],"default_left":[1,1,1,1,1,1,1,0,0,0,0,0,0,0,0],"id":9,"left_children":[1,3,5,7,9,11,13,-1,-1,-1,-1,-1,-1,-1,-1],"loss_changes":[2.5527165E6,2.4326615E6,4.6133855E6,8.5347E5,2.9889405E6,5.870241E5,1.3934635E6,0E0,0E0,0E0,0E0,0E0,0E0,0E0,0E0],"parents":[2147483647,0,0,1,1,2,2,3,3,4,4,5,5,6,6],"right_children":[2,4,6,8,10,12,14,-1,-1,-1,-1,-1,-1,-1,-1],"split_conditions":[1.15E1,5.75E1,1.95E1,2.0215E3,3.035E2,2.0145E3,6.5E0,8.595697E0,-1.0352435E0,1.5023266E0,7.2858267E0,6.8334407E-1,-1.8293499E0,1.1077573E1,3.4705527E0],"split_indices":[0,3,0,7,3,7,4,0,0,0,0,0,0,0,0],"split_type":[0,0,0,0,0,0,0,0,0,0,0,0,0,0,0],"sum_hessian":[9.2889E4,4.6449E4,4.644E4,7.524E3,3.8925E4,3.096E4,1.548E4,6.84E3,6.84E2,3.1449E4,7.476E3,8.768E3,2.2192E4,1.848E3,1.3632E4],"tree_param":{"num_deleted":"0","num_feature":"10","num_nodes":"15","size_leaf_vector":"0"}},{"base_weights":[5.9141035E0,4.1653282E1,5.3984613E0,5.4463852E1,1.036716E1,4.7222857E0,3.2448517E1,1.054391E2,4.851966E1,9.776121E1,1.3484367E0,1.3053638E1,2.7857468E0,-2.0836906E0,5.5249023E1],"categories":[],"categories_nodes":[],"categories_segments":[],"categories_sizes":[],"default_left":[1,1,1,1,1,1,1,0,0,0,0,0,0,0,0],"id":10,"left_children":[1,3,5,7,9,11,13,-1,-1,-1,-1,-1,-1,-1,-1],"loss_changes":[1.711611E6,5.28883E5,1.6747152E6,2.7880125E5,3.0331853E5,1.4413418E6,1.7582715E6,0E0,0E0,0E0,0E0,0E0,0E0,0E0,0E0],"parents":[2147483647,0,0,1,1,2,2,3,3,4,4,5,5,6,6],"right_children":[2,4,6,8,10,12,14,-1,-1,-1,-1,-1,-1,-1,-1],"split_conditions":[5.5E0,4.5E0,3.565E2,2.0125E3,7.4682495E1,2.0135E3,2.0155E3,2.7414165E1,1.2615111E1,2.5417913E1,3.5059354E-1,3.393946E0,7.242941E-1,-5.4175955E-1,1.4364745E1],"split_indices":[3,2,3,7,8,7,7,0,0,0,0,0,0,0,0],"split_type":[0,0,0,0,0,0,0,0,0,0,0,0,0,0,0],"sum_hessian":[9.2889E4,1.32E3,9.1569E4,9.36E2,3.84E2,8.9337E4,2.232E3,9.6E1,8.4E2,3.5E1,3.49E2,1.6848E4,7.2489E4,8.88E2,1.344E3],"tree_param":{"num_deleted":"0","num_feature":"10","num_nodes":"15","size_leaf_vector":"0"}},{"base_weights":[4.3773375E0,8.607555E0,7.9706585E-1,1.8668108E1,5.252193E0,-3.7072709E0,1.0931408E1,5.923281E0,2.5948917E1,3.4232378E-1,1.7207815E1,3.9102955E0,-5.8837824E0,7.081503E0,3.0242521E1],"categories":[],"categories_nodes":[],"categories_segments":[],"categories_sizes":[],"default_left":[1,1,1,1,1,1,1,0,0,0,0,0,0,0,0],"id":11,"left_children":[1,3,5,7,9,11,13,-1,-1,-1,-1,-1,-1,-1,-1],"loss_changes":[1.4068429E6,1.4372662E6,2.2966618E6,9.879955E5,1.8744198E6,5.775114E5,1.1507358E6,0E0,0E0,0E0,0E0,0E0,0E0,0E0,0E0],"parents":[2147483647,0,0,1,1,2,2,3,3,4,4,5,5,6,6],"right_children":[2,4,6,8,10,12,14,-1,-1,-1,-1,-1,-1,-1,-1],"split_conditions":[1.05E1,8.85E1,1.95E1,2.0155E3,4.05E1,1.25E1,3.015E2,1.540053E0,6.7467184E0,8.900418E-2,4.474032E0,1.0166768E0,-1.5297834E0,1.8411907E0,7.863055E0],"split_indices":[0,3,0,7,4,0,3,0,0,0,0,0,0,0,0],"split_type":[0,0,0,0,0,0,0,0,0,0,0,0,0,0,0],"sum_hessian":[9.2889E4,4.2579E4,5.031E4,1.0648E4,3.1931E4,3.483E4,1.548E4,3.872E3,6.776E3,2.2636E4,9.295E3,7.74E3,2.709E4,1.2908E4,2.572E3],"tree_param":{"num_deleted":"0","num_feature":"10","num_nodes":"15","size_leaf_vector":"0"}},{"base_weights":[3.2394676E0,1.3677571E1,2.1590137E0,1.0701078E1,3.448409E1,1.9530715E-1,8.463236E0,3.4211166E1,6.7780957E0,5.644467E1,2.7914968E1,3.6307507E0,-6.539483E0,-3.5719798E0,1.3624022E1],"categories":[],"categories_nodes":[],"categories_segments":[],"categories_sizes":[],"default_left":[1,1,1,1,1,1,1,0,0,0,0,0,0,0,0],"id":12,"left_children":[1,3,5,7,9,11,13,-1,-1,-1,-1,-1,-1,-1,-1],"loss_changes":[1.0475736E6,5.392311E5,1.042092E6,7.029271E5,1.5566962E5,1.4850946E6,1.241837E6,0E0,0E0,0E0,0E0,0E0,0E0,0E0,0E0],"parents":[2147483647,0,0,1,1,2,2,3,3,4,4,5,5,6,6],"right_children":[2,4,6,8,10,12,14,-1,-1,-1,-1,-1,-1,-1,-1],"split_conditions":[3.35E1,2.05E1,2.825E2,2.5E0,1.4418259E2,1.945E2,2.0145E3,8.894903E0,1.7623048E0,1.4675614E1,7.2578917E0,9.439951E-1,-1.7002655E0,-9.287147E-1,3.5422454E0],"split_indices":[3,0,3,0,8,3,7,0,0,0,0,0,0,0,0],"split_type":[0,0,0,0,0,0,0,0,0,0,0,0,0,0,0],"sum_hessian":[9.2889E4,8.712E3,8.4177E4,7.623E3,1.089E3,6.4185E4,1.9992E4,1.089E3,6.534E3,2.49E2,8.4E2,4.2504E4,2.1681E4,6E3,1.3992E4],"tree_param":{"num_deleted":"0","num_feature":"10","num_nodes":"15","size_leaf_vector":"0"}},{"base_weights":[2.3975763E0,4.703032E0,-2.0909052E0,4.1484876E0,2.3373177E1,5.419961E1,-2.6116798E0,1.0902872E0,8.068643E0,1.0376743E2,1.12988615E1,8.65882E1,-1.0802433E1,3.571178E0,-6.083804E0],"categories":[],"categories_nodes":[],"categories_segments":[],"categories_sizes":[],"default_left":[1,1,1,1,1,1,1,0,0,0,0,0,0,0,0],"id":13,"left_children":[1,3,5,7,9,11,13,-1,-1,-1,-1,-1,-1,-1,-1],"loss_changes":[9.612352E5,6.352825E5,9.241983E5,7.1451294E5,1.7169765E6,6.093741E5,6.705423E5,0E0,0E0,0E0,0E0,0E0,0E0,0E0,0E0],"parents":[2147483647,0,0,1,1,2,2,3,3,4,4,5,5,6,6],"right_children":[2,4,6,8,10,12,14,-1,-1,-1,-1,-1,-1,-1,-1],"split_conditions":[2.0185E3,4.104E2,3.5E0,2.0155E3,4.1322302E2,4.5E0,1.75E1,2.8347465E-1,2.097847E0,2.6979532E1,2.9377038E0,2.2512932E1,-2.8086324E0,9.2850626E-1,-1.581789E0],"split_indices":[7,9,3,7,9,2,4,0,0,0,0,0,0,0,0],"split_type":[0,0,0,0,0,0,0,0,0,0,0,0,0,0,0],"sum_hessian":[9.2889E4,6.1368E4,3.1521E4,5.9599E4,1.769E3,2.88E2,3.1233E4,3.3481E4,2.6118E4,2.3E2,1.539E3,1.92E2,9.6E1,1.1232E4,2.0001E4],"tree_param":{"num_deleted":"0","num_feature":"10","num_nodes":"15","size_leaf_vector":"0"}},{"base_weights":[1.774758E0,1.1168231E1,7.9357433E-1,-1.9375088E1,3.1669697E1,8.135143E0,-5.998706E-1,-2.596723E0,-4.368503E1,1.5458406E2,-1.946673E0,1.0587522E1,-1.3883962E1,-3.0961523E0,5.7301993E0],"categories":[],"categories_nodes":[],"categories_segments":[],"categories_sizes":[],"default_left":[1,1,1,1,1,1,1,0,0,0,0,0,0,0,0],"id":14,"left_children":[1,3,5,7,9,11,13,-1,-1,-1,-1,-1,-1,-1,-1],"loss_changes":[8.561325E5,5.5016295E6,8.6041525E5,1.439299E6,2.172188E7,7.2465394E5,1.1170355E6,0E0,0E0,0E0,0E0,0E0,0E0,0E0,0E0],"parents":[2147483647,0,0,1,1,2,2,3,3,4,4,5,5,6,6],"right_children":[2,4,6,8,10,12,14,-1,-1,-1,-1,-1,-1,-1,-1],"split_conditions":[2.0125E3,1.475E2,8.5E0,8.75E1,1.945E2,2.0215E3,3.95E1,-6.7514795E-1,-1.1358108E1,4.0191853E1,-5.06135E-1,2.7527554E0,-3.60983E0,-8.049996E-1,1.4898518E0],"split_indices":[7,3,4,3,3,7,4,0,0,0,0,0,0,0,0],"split_type":[0,0,0,0,0,0,0,0,0,0,0,0,0,0,0],"sum_hessian":[9.2889E4,8.784E3,8.4105E4,3.528E3,5.256E3,1.3416E4,7.0689E4,2.088E3,1.44E3,1.128E3,4.128E3,1.2072E4,1.344E3,5.0697E4,1.9992E4],"tree_param":{"num_deleted":"0","num_feature":"10","num_nodes":"15","size_leaf_vector":"0"}},{"base_weights":[1.3136162E0,4.1842833E0,-1.5576353E0,8.660362E0,5.781678E-1,-6.380435E0,5.1942654E0,2.1410742E1,3.7890155E0,-4.6897926E0,8.674593E0,-1.2236259E1,-3.3101666E0,3.9835382E0,4.2010803E1],"categories":[],"categories_nodes":[],"categories_segments":[],"categories_sizes":[],"default_left":[1,1,1,1,1,1,1,0,0,0,0,0,0,0,0],"id":15,"left_children":[1,3,5,7,9,11,13,-1,-1,-1,-1,-1,-1,-1,-1],"loss_changes":[7.656437E5,7.497563E5,1.5122942E6,1.28718E6,1.097297E6,4.8702738E5,8.623992E5,0E0,0E0,0E0,0E0,0E0,0E0,0E0,0E0],"parents":[2147483647,0,0,1,1,2,2,3,3,4,4,5,5,6,6],"right_children":[2,4,6,8,10,12,14,-1,-1,-1,-1,-1,-1,-1,-1],"split_conditions":[1.15E1,1.575E2,1.85E1,8.8026E1,4.05E1,1.215E2,3.535E2,5.5667925E0,9.85144E-1,-1.219346E0,2.255394E0,-3.1814272E0,-8.6064327E-1,1.0357199E0,1.0922809E1],"split_indices":[0,3,0,9,4,3,3,0,0,0,0,0,0,0,0],"split_type":[0,0,0,0,0,0,0,0,0,0,0,0,0,0,0],"sum_hessian":[9.2889E4,4.6449E4,4.644E4,2.0724E4,2.5725E4,2.709E4,1.935E4,5.728E3,1.4996E4,1.5585E4,1.014E4,9.317E3,1.7773E4,1.8735E4,6.15E2],"tree_param":{"num_deleted":"0","num_feature":"10","num_nodes":"15","size_leaf_vector":"0"}},{"base_weights":[9.722427E-1,5.9068074E0,-1.7682846E-1,9.662387E0,-3.3894325E1,-8.6296576E-1,2.1108374E1,5.630058E0,3.1519007E1,-5.3735943E0,-6.3288345E1,-4.3455765E-1,-2.7555794E1,-1.0791199E0,3.455791E1],"categories":[],"categories_nodes":[],"categories_segments":[],"categories_sizes":[],"default_left":[1,1,1,1,1,1,1,0,0,0,0,0,0,0,0],"id":16,"left_children":[1,3,5,7,9,11,13,-1,-1,-1,-1,-1,-1,-1,-1],"loss_changes":[5.2670275E5,2.6228895E6,1.1004141E6,1.4128605E6,1.2680668E6,8.347054E5,7.021996E5,0E0,0E0,0E0,0E0,0E0,0E0,0E0,0E0],"parents":[2147483647,0,0,1,1,2,2,3,3,4,4,5,5,6,6],"right_children":[2,4,6,8,10,12,14,-1,-1,-1,-1,-1,-1,-1,-1],"split_conditions":[2.0135E3,3.345E2,3.535E2,2.825E2,2.0125E3,3.475E2,2.0165E3,1.463815E0,8.1949415E0,-1.3971344E0,-1.645497E1,-1.12984985E-1,-7.164506E0,-2.8057116E-1,8.985057E0],"split_indices":[7,3,3,3,7,3,7,0,0,0,0,0,0,0,0],"split_type":[0,0,0,0,0,0,0,0,0,0,0,0,0,0,0],"sum_hessian":[9.2889E4,1.7544E4,7.5345E4,1.6032E4,1.512E3,7.2993E4,2.352E3,1.3536E4,2.496E3,7.68E2,7.44E2,7.1841E4,1.152E3,8.88E2,1.464E3],"tree_param":{"num_deleted":"0","num_feature":"10","num_nodes":"15","size_leaf_vector":"0"}},{"base_weights":[7.193864E-1,2.784198E0,-1.7212903E0,5.8370013E0,1.795332E-1,-4.698058E0,6.216479E0,1.42591715E1,2.4208727E0,-3.1436691E0,7.997242E0,-1.6830916E0,-8.502546E0,3.1298146E0,1.837923E1],"categories":[],"categories_nodes":[],"categories_segments":[],"categories_sizes":[],"default_left":[1,1,1,1,1,1,1,0,0,0,0,0,0,0,0],"id":17,"left_children":[1,3,5,7,9,11,13,-1,-1,-1,-1,-1,-1,-1,-1],"loss_changes":[4.6812747E5,4.001199E5,1.00593494E6,6.665083E5,7.054814E5,3.55121E5,4.3584647E5,0E0,0E0,0E0,0E0,0E0,0E0,0E0,0E0],"parents":[2147483647,0,0,1,1,2,2,3,3,4,4,5,5,6,6],"right_children":[2,4,6,8,10,12,14,-1,-1,-1,-1,-1,-1,-1,-1],"split_conditions":[1.25E1,1.625E2,2.05E1,8.689583E1,3.035E2,9.0755005E1,2.875E2,3.7073843E0,6.294269E-1,-8.1735396E-1,2.0792828E0,-4.376038E-1,-2.210662E0,8.1375176E-1,4.7785997E0],"split_indices":[0,3,0,9,3,9,3,0,0,0,0,0,0,0,0],"split_type":[0,0,0,0,0,0,0,0,0,0,0,0,0,0,0],"sum_hessian":[9.2889E4,5.0319E4,4.257E4,2.3166E4,2.7153E4,3.096E4,1.161E4,6.684E3,1.6482E4,1.9054E4,8.099E3,1.7273E4,1.3687E4,9.261E3,2.349E3],"tree_param":{"num_deleted":"0","num_feature":"10","num_nodes":"15","size_leaf_vector":"0"}},{"base_weights":[5.324384E-1,2.1693508E1,2.888708E-1,3.5484383E1,3.5096796E0,1.5627061E0,-3.6425512E0,5.0325974E1,-4.038401E0,-1.053103E1,3.379404E1,1.3097537E1,9.6205026E-1,-1.3212599E1,2.3894951E0],"categories":[],"categories_nodes":[],"categories_segments":[],"categories_sizes":[],"default_left":[1,1,1,1,1,1,1,0,0,0,0,0,0,0,0],"id":18,"left_children":[1,3,5,7,9,11,13,-1,-1,-1,-1,-1,-1,-1,-1],"loss_changes":[4.7876275E5,2.6494034E5,4.5990888E5,3.527383E5,1.9467864E5,4.805525E5,1.2973876E6,0E0,0E0,0E0,0E0,0E0,0E0,0E0,0E0],"parents":[2147483647,0,0,1,1,2,2,3,3,4,4,5,5,6,6],"right_children":[2,4,6,8,10,12,14,-1,-1,-1,-1,-1,-1,-1,-1],"split_conditions":[4.5E0,3.5E0,2.0195E3,2.7342572E2,5.25E1,3.5E0,2.0205E3,1.3084753E1,-1.0499842E0,-2.7380676E0,8.78645E0,3.4053595E0,2.5013307E-1,-3.4352756E0,6.212687E-1],"split_indices":[3,2,7,9,4,4,7,0,0,0,0,0,0,0,0],"split_type":[0,0,0,0,0,0,0,0,0,0,0,0,0,0,0],"sum_hessian":[9.2889E4,1.056E3,9.1833E4,6E2,4.56E2,6.936E4,2.2473E4,4.36E2,1.64E2,3.12E2,1.44E2,3.432E3,6.5928E4,8.688E3,1.3785E4],"tree_param":{"num_deleted":"0","num_feature":"10","num_nodes":"15","size_leaf_vector":"0"}},{"base_weights":[3.942081E-1,2.3526666E0,-1.3568796E0,-7.2640127E-1,1.4642384E1,-2.1635468E0,2.4841732E1,-9.991082E0,3.8634968E0,4.6954426E1,6.4481845E0,-8.2217366E-1,-1.6934021E1,3.1984741E1,-7.6226524E1],"categories":[],"categories_nodes":[],"categories_segments":[],"categories_sizes":[],"default_left":[1,1,1,1,1,1,1,0,0,0,0,0,0,0,0],"id":19,"left_children":[1,3,5,7,9,11,13,-1,-1,-1,-1,-1,-1,-1,-1],"loss_changes":[3.1856322E5,1.659295E6,1.0364858E6,1.4911405E6,2.325713E6,9.426354E5,1.0600676E6,0E0,0E0,0E0,0E0,0E0,0E0,0E0,0E0],"parents":[2147483647,0,0,1,1,2,2,3,3,4,4,5,5,6,6],"right_children":[2,4,6,8,10,12,14,-1,-1,-1,-1,-1,-1,-1,-1],"split_conditions":[2.0165E3,2.0155E3,3.535E2,1.215E2,7.45E1,3.205E2,5.25E1,-2.5976813E0,1.0045091E0,1.220815E1,1.6765279E0,-2.1376514E-1,-4.4028454E0,8.316032E0,-1.9818895E1],"split_indices":[7,7,3,3,3,3,4,0,0,0,0,0,0,0,0],"split_type":[0,0,0,0,0,0,0,0,0,0,0,0,0,0,0],"sum_hessian":[9.2889E4,4.3848E4,4.9041E4,3.5064E4,8.784E3,4.7577E4,1.464E3,1.1616E4,2.3448E4,1.776E3,7.008E3,4.3617E4,3.96E3,1.368E3,9.6E1],"tree_param":{"num_deleted":"0","num_feature":"10","num_nodes":"15","size_leaf_vector":"0"}},{"base_weights":[2.9167238E-1,2.3362248E0,-1.2379478E0,1.9800459E1,5.19899E-1,4.69679E0,-2.9917018E0,-1.572502E1,4.5171387E1,-1.4065722E0,1.3043258E1,1.6731582E0,1.7739697E1,-3.436063E0,1.6864384E1],"categories":[],"categories_nodes":[],"categories_segments":[],"categories_sizes":[],"default_left":[1,1,1,1,1,1,1,0,0,0,0,0,0,0,0],"id":20,"left_children":[1,3,5,7,9,11,13,-1,-1,-1,-1,-1,-1,-1,-1],"loss_changes":[2.9050603E5,1.2610161E6,5.530676E5,3.3761325E6,8.687916E5,4.7798562E5,3.6196222E5,0E0,0E0,0E0,0E0,0E0,0E0,0E0,0E0],"parents":[2147483647,0,0,1,1,2,2,3,3,4,4,5,5,6,6],"right_children":[2,4,6,8,10,12,14,-1,-1,-1,-1,-1,-1,-1,-1],"split_conditions":[1.35E1,2.0125E3,1.25E1,1.435E2,3.085E2,2.0205E3,4.1298663E2,-4.0885053E0,1.174456E1,-3.6570877E-1,3.3912468E0,4.350211E-1,4.612321E0,-8.9337635E-1,4.3847394E0],"split_indices":[1,7,4,3,3,7,9,0,0,0,0,0,0,0,0],"split_type":[0,0,0,0,0,0,0,0,0,0,0,0,0,0,0],"sum_hessian":[9.2889E4,3.9753E4,5.3136E4,3.744E3,3.6009E4,1.212E4,4.1016E4,1.56E3,2.184E3,3.1209E4,4.8E3,9.84E3,2.28E3,4.0119E4,8.97E2],"tree_param":{"num_deleted":"0","num_feature":"10","num_nodes":"15","size_leaf_vector":"0"}},{"base_weights":[2.1604335E-1,8.482312E-1,-6.0825815E0,-4.2560533E-2,1.3010537E1,-2.7013535E1,-8.095191E-1,4.21133E0,-1.6977353E0,7.102729E1,7.723836E0,-3.8649197E1,-1.0130614E1,-6.911034E0,1.0644455E1],"categories":[],"categories_nodes":[],"categories_segments":[],"categories_sizes":[],"default_left":[1,1,1,1,1,1,1,0,0,0,0,0,0,0,0],"id":21,"left_children":[1,3,5,7,9,11,13,-1,-1,-1,-1,-1,-1,-1,-1],"loss_changes":[3.6988516E5,9.1459206E5,9.35145E5,5.538328E5,1.7664498E6,3.3454525E5,4.7313594E5,0E0,0E0,0E0,0E0,0E0,0E0,0E0,0E0],"parents":[2147483647,0,0,1,1,2,2,3,3,4,4,5,5,6,6],"right_children":[2,4,6,8,10,12,14,-1,-1,-1,-1,-1,-1,-1,-1],"split_conditions":[3.305E2,3.065E2,2.0135E3,2.0145E3,4.45E1,2.15E1,3.535E2,1.0949458E0,-4.4141117E-1,1.8467094E1,2.0081973E0,-1.0048791E1,-2.6339595E0,-1.7968688E0,2.767558E0],"split_indices":[3,3,7,7,4,1,3,0,0,0,0,0,0,0,0],"split_type":[0,0,0,0,0,0,0,0,0,0,0,0,0,0,0],"sum_hessian":[9.2889E4,8.4417E4,8.472E3,7.8657E4,5.76E3,1.704E3,6.768E3,2.2032E4,5.6625E4,4.8E2,5.28E3,1.008E3,6.96E2,4.416E3,2.352E3],"tree_param":{"num_deleted":"0","num_feature":"10","num_nodes":"15","size_leaf_vector":"0"}},{"base_weights":[1.5997434E-1,2.2442594E0,-1.7645919E0,1.1060402E0,2.2937344E1,-3.4015024E-1,-8.228523E0,3.2125833E0,-1.6173184E0,5.261603E1,1.5044995E1,-1.7305473E0,1.8756454E1,-1.5218677E1,-1.5682739E0],"categories":[],"categories_nodes":[],"categories_segments":[],"categories_sizes":[],"default_left":[1,1,1,1,1,1,1,0,0,0,0,0,0,0,0],"id":22,"left_children":[1,3,5,7,9,11,13,-1,-1,-1,-1,-1,-1,-1,-1],"loss_changes":[3.7261778E5,1.0503326E6,4.446822E5,2.4250852E5,5.4380375E5,1.050849E6,4.059925E5,0E0,0E0,0E0,0E0,0E0,0E0,0E0,0E0],"parents":[2147483647,0,0,1,1,2,2,3,3,4,4,5,5,6,6],"right_children":[2,4,6,8,10,12,14,-1,-1,-1,-1,-1,-1,-1,-1],"split_conditions":[9.252269E1,2.995E2,4.65E1,1.945E2,3.195E2,3.105E2,1.95E1,8.3527166E-1,-4.2050275E-1,1.3680168E1,3.9116986E0,-4.499423E-1,4.876678E0,-3.9568558E0,-4.077512E-1],"split_indices":[8,3,4,3,3,3,1,0,0,0,0,0,0,0,0],"split_type":[0,0,0,0,0,0,0,0,0,0,0,0,0,0,0],"sum_hessian":[9.2889E4,4.4594E4,4.8295E4,4.227E4,2.324E3,3.9575E4,8.72E3,2.3834E4,1.8436E4,4.87E2,1.837E3,3.689E4,2.685E3,4.254E3,4.466E3],"tree_param":{"num_deleted":"0","num_feature":"10","num_nodes":"15","size_leaf_vector":"0"}},{"base_weights":[1.185742E-1,1.5944326E1,-1.0973133E-1,4.4856144E1,1.0126474E1,1.1189361E0,-2.6691582E0,3.0686686E1,8.919165E1,1.5346418E1,-2.0445541E1,3.2343242E-1,1.02945595E1,5.1858E0,-5.5030394E0],"categories":[],"categories_nodes":[],"categories_segments":[],"categories_sizes":[],"default_left":[1,1,1,1,1,1,1,0,0,0,0,0,0,0,0],"id":23,"left_children":[1,3,5,7,9,11,13,-1,-1,-1,-1,-1,-1,-1,-1],"loss_changes":[3.3562325E5,2.2174412E5,2.8796172E5,1.3609738E5,1.76016E5,4.5160072E5,6.611734E5,0E0,0E0,0E0,0E0,0E0,0E0,0E0,0E0],"parents":[2147483647,0,0,1,1,2,2,3,3,4,4,5,5,6,6],"right_children":[2,4,6,8,10,12,14,-1,-1,-1,-1,-1,-1,-1,-1],"split_conditions":[5.5E0,3.5E0,1.32505E2,3.5685E2,5.5E0,2.995E2,2.0135E3,7.978538E0,2.3189829E1,3.9900687E0,-5.3158407E0,8.409242E-2,2.6765854E0,1.348308E0,-1.4307902E0],"split_indices":[3,0,8,8,2,3,7,0,0,0,0,0,0,0,0],"split_type":[0,0,0,0,0,0,0,0,0,0,0,0,0,0,0],"sum_hessian":[9.2889E4,1.32E3,9.1569E4,2.2E2,1.1E3,6.1869E4,2.97E4,1.68E2,5.2E1,9.4E2,1.6E2,5.6934E4,4.935E3,7.874E3,2.1826E4],"tree_param":{"num_deleted":"0","num_feature":"10","num_nodes":"15","size_leaf_vector":"0"}}]},"name":"gbtree"},"learner_model_param":{"base_score":"5E-1","boost_from_average":"1","num_class":"0","num_feature":"10","num_target":"1"},"objective":{"name":"reg:squarederror","reg_loss_param":{"scale_pos_weight":"1"}}},"version":[1,7,3]}